{"input_num": 13, "hidden_num": 13, "output_num": 3, "learning_rate": 0.5, "W1": [[0.13800439011997997, -8.754852052052936, 1.273197773443876, 0.6232931723942274, 1.0423378228305757, -0.7968163336921005, 0.20989744236013827, 0.18806794148733882, -0.6015985551502405, 1.0049425005598982, -0.1258575320794368, 0.31856026296972817, 0.6385909745408882], [0.407583328355901, -0.5865723405025286, 0.8668452618574243, 0.31742748530470016, 1.338675652685724, 0.47618357079359674, 0.7960252842764056, -0.1396590565393806, 0.4907678940752257, 0.12342892621510428, 0.46911901034601866, 0.4885282094370576, 0.41615217671294247], [0.67717196960077, -1.005502215972687, 1.5313845665857193, 0.7730288474699465, -0.0736263775214966, -0.6393491440264186, 0.5833037914670213, -0.24155842299203914, -0.44842648571251503, 0.2557694493998904, 0.501627502428328, 0.5567668566140429, -0.5002998054761489], [0.4822630106414656, 3.5048246953332534, 0.8549245424883551, 0.8665068148445765, 0.5403185417325377, 0.403582816424363, 0.500051586127934, 0.37926779302745944, 0.6051461429391253, 0.6228146596295681, 0.4105600434304433, 0.34985851693329484, -0.006678530117513054], [0.26359759355323986, 0.65325522943759, 0.11127758146062083, 0.44274777383497277, 0.9560977394928853, 0.7726668176931631, 0.8820465530554932, 0.22874972016400102, 0.8816069162887772, 0.06955808757358592, 0.5626989963086565, 0.010883007714415934, 0.9747652814600658], [-0.18627494537074143, -1.8267140799505925, -0.2549956359326579, -0.6036142802440465, 0.7678989204719652, 0.07916986361537963, 0.1205463741439456, -1.2848529343989938, -0.44291614003470137, 0.5778163505552325, 0.2386028067780537, 0.05675397272002824, 1.1609163853788345], [0.6053480269705029, 0.8381311979696895, 0.35900399943311234, 0.652782094751841, 0.32881913943558405, -0.1364472610047984, 0.5489141342007222, -0.01298899235272238, -0.37798856529324515, 0.781041113872915, 0.5466595643631991, 0.2662660741723864, 0.6973522607973494], [1.9039883437898628, 0.16733103810428926, 0.8040981849349491, 1.8531107329765104, 0.881711559272773, -2.078299287583757, 1.8140420360915888, 0.7976565040680473, 0.29413105142266094, -0.7512406287778618, 2.110798335917149, 1.9509687611116808, 0.040602991558096276], [-0.2006526823575812, -0.07810398797012318, 0.24881463896124573, -0.18053054544080882, 0.404921513882108, -0.47027666090002157, 0.32630644722080937, 0.11568566883364065, -0.5704340893939412, 0.07771828227016515, 0.2740512843166015, 0.34503783513729475, -0.1905057606096946], [0.9687594057108001, -3.4884744091444606, 0.46017333467357074, 0.29298533949299704, 0.9778118463021483, 0.04845260913985388, 0.3291652812176087, 0.9201609300030134, 0.7024916668707946, 0.6504868395671741, 0.8834627176287417, 0.26279670779321423, 0.2590311651151523], [0.10025382684596504, 1.2646500825633742, -0.1266754821253475, 0.2151447067283186, -0.18603688263280269, -0.6627814771526607, 0.01810330983024239, -0.9187358245885667, -1.6057801946707488, -0.2820346918115106, 0.18175552813132312, 0.017197044614142676, 1.286299424832102], [0.020480563514891206, 3.105023801087073, -0.6239432226161102, 0.2763311985994666, 0.7524149855244218, 0.6311392599787189, 0.2046248202029622, -1.2325290733327896, -0.15672142708250703, 0.3426029769984463, 0.4127774432095584, -0.09609941734775433, 0.8875166547521882], [0.8900472732597128, 0.7062850232296818, 0.5863913206994074, 0.9194499463909688, 0.569073804684161, 0.8849024495540543, 0.6019666071512808, 0.9173855177223519, 0.8664482779612115, 0.17450162333434074, 0.5258733182101504, 0.7648587895730831, 0.5450684655019196]], "W2": [[-1.9745721575497126, -1.1259052570944217, -0.687126474910113], [-8.008890595417709, 4.917219419762109, -4.492869464826673], [-0.7195454589660767, -2.2734084979376585, 0.08954500710510566], [-1.7452286034876576, -0.9316329049455131, -0.589739476954428], [0.07645190143722122, -1.123031659538772, -1.9656273099652253], [-6.684241272565392, -3.5724696727600365, -4.055623450616498], [-1.0421490076077629, -0.8482850019240357, -1.0199317131327184], [-3.2279954719245967, -2.123448922551176, 0.2693599235424072], [-3.657803420194494, -0.9512753341027899, -0.19744737105309162], [-1.3034659107844895, -3.9168950357978414, -2.5338850831680078], [-1.615986285904562, -0.5595617176658289, -1.3795702203481564], [-1.6683623588094192, -0.9132754096410688, -0.6480272281936661], [-1.168068652865564, -3.578030582365045, -4.948021349514783]], "b1": [[0.8615461465880125, -10.336169279198437, 0.8130411526762444, 0.16171852422471916, -0.10461383450389442, -1.7410511274279457, 0.4043303239945339, 1.6741646805326915, 1.0228489834687045, 0.06393588339367474, 0.16511723587905658, 0.1603113373767238, -1.2135607974031841]], "b2": [[12.77251029975, 9.176206304322621, 7.774985410690401]]}