{"input_num": 4, "hidden_num": 10, "output_num": 3, "learning_rate": 0.05, "W1": [[0.22992895036317731, 0.6334688351400104, 0.13538523480883313, 1.8404317691800385, 0.8081960466418544, 0.9305864093886616, 0.8172691796594931, 0.801347529008486, -0.467707214871058, -0.291171471086802], [0.6369795755294398, 0.8381566575689274, 0.27275249110212213, 1.8361665254559583, 0.7343595175354142, 0.12050910744860478, 0.16641085923986199, 0.4720040847363484, -1.0182265515675832, -1.3300253144283478], [0.9784826874194078, 0.37029768424301374, 0.9643623607301451, -2.539327282803446, 0.46540816090527737, 0.18493467413950515, 0.6614042074883814, 0.20888330859230442, 1.760296598290812, 1.8907301835838128], [0.7256723209869312, 0.9678657737354742, 0.7437798626124318, -2.203432500606365, 0.012991949027238195, 0.42288780630537365, 0.7996207200898874, 0.4491369772235963, 1.0813519220845071, 0.791782247832958]], "W2": [[-0.5027916783518414, -1.3773915984830107, 0.20554507950836157], [-0.5500257031493828, -0.545809565899284, -0.3479974259411408], [-0.4411785600788959, -0.5062521923688279, -0.4055793292124164], [3.237333179751755, 2.2776625856125516, -4.319499394415704], [-0.4298985573050599, -0.5853738698384336, -0.21947820994384065], [-0.11214994323118647, -0.9983491451162608, -0.4359774348555722], [-0.17858246208325185, -1.0290283309592771, -0.10533831305780471], [0.27064459366546045, -1.0223836386849943, -0.5111932567460824], [-2.5477863077176797, 1.3113676942594712, 1.1346756088985062], [-2.060687835914376, 1.8480960668846478, 0.9682320106915455]], "b1": [[0.9381903797356178, 0.5356613049398266, 0.3900021475138329, -0.8529355767922155, 0.16675669284440192, 0.2789795884452694, 0.5987039352805417, -0.011431700133057877, 0.40768652753262713, 0.36502932780544206]], "b2": [[1.3767753643084286, 1.7716510050990248, 1.7431569378973408]]}