{"input_num": 4, "hidden_num": 10, "output_num": 3, "learning_rate": 0.05, "W1": [[0.6585243621822758, 0.451252182817612, 0.37982621407301825, 0.12691295214985884, 0.7796796645704307, 0.3576139791824327, 0.6280955249888954, 0.6395537397663542, -0.6884487348528728, 0.11067797954689802], [0.5937426589722499, 0.8290731545523048, 0.34054089124604653, 0.9719836300276937, 0.06980748867996361, 0.891242742846485, 0.3074955948936555, 0.3974128276253672, -1.5562633251458655, 0.658119361834737], [0.7443632250081929, 0.5128132173072396, 0.7205672650161307, 0.7436931552839212, 0.5471215448924938, 0.5040401218266107, 0.8630418580861218, 0.06503000331106935, 1.9996871172798043, 0.7503112568116554], [0.3082575369799988, 0.7008449489481184, 0.4220086483321702, 0.07139535800854027, 0.32443154760306486, 0.6741017154645768, 0.8003048863896578, 0.5812448426976564, 1.6739166949388666, 0.059415346541417]], "W2": [[0.029673104757797324, -0.7196264192953772, -0.7712439329084034], [0.4729179651606274, -0.5860683909785215, -0.25927138863195337], [0.24051313391632778, 0.1515718815555348, -0.8419166170677586], [0.1974150288606155, -0.63769661475416, -0.5279664779171466], [-0.02047368449771324, -0.6382577182160664, -0.4063361167957071], [0.17227797256173902, -0.4531419875026521, -0.2633261932135245], [0.5408727821197331, -0.4553233854461435, -0.3035958184469719], [0.2373870300428409, 0.05649748072457103, -0.3509089086951802], [-4.726053291704912, 2.0574821634485487, 2.6377075084731305], [-0.3309590058416796, -0.02569036091651847, -0.7221014866177702]], "b1": [[0.7361834914209459, 0.8984975630376321, 0.7024320854754278, 0.6190940089114803, 0.9436030937438825, 0.0901716985879375, 0.5020287161635683, 0.9417573710684136, 0.9996486005199129, 0.392528039226835]], "b2": [[0.5676567566681712, 1.1815856455786187, 1.8659477337827992]]}