{"input_num": 13, "hidden_num": 13, "output_num": 3, "learning_rate": 0.5, "W1": [[1.800162255745074, -0.04596472304007687, 2.1084943885433622, 3.1481659194263742, 1.5629890671130373, -3.213068040490151, -2.50570310456149, -7.587336301669754, 1.0198436913765578, 0.015755802534821978, 1.9553500691220218, 2.4608727820956546, -8.425155424283531], [1.8133644668142515, -1.6869767278786678, 0.4766872708230802, 3.277776668071517, 0.5985977913015179, 4.301253130653131, -2.3169895510092533, -11.174436109374316, 1.1514407082124043, -0.006538429378828121, 1.1544012308254823, 1.727918920901661, -5.61664624038492], [2.8952142678497523, -0.6509217304940699, 1.6694889977335179, 6.122980398433061, 1.302343092337574, -1.1093341927886529, -2.9745311764496183, -11.31449972438903, 1.23611314617444, -0.326128864806901, 1.1176999706925055, 2.471462994528284, -8.18073507298376], [2.6026259454115928, -2.654094625393029, 1.0212576314792774, 6.0189980740739175, 1.2216703654832746, 10.53481211752869, -3.095847421543313, -13.83061885914845, 1.5126037608068854, -0.4745011596416694, 1.1780022699571109, 1.9868354705166387, 6.273635215317114], [2.3027705669623324, -1.1978256551493547, 1.7868956413997754, 4.414549247157533, 0.9263239974302457, 0.1723186204720961, -1.5644970288849143, -2.0322053439378056, 0.8102276601734553, -0.17179281803725097, 0.5031747290185061, 2.42424153231449, -1.113513453752983], [1.5039285186115925, -0.8127806723882424, -0.7123033658594525, -1.7413881167029739, -1.223199546170876, -2.104747789248801, 1.0243170151883387, 3.2503046392541344, 0.4852012182507921, -0.04605632601630615, 0.24407470349280433, 1.8103314354030626, -0.9327678132282945], [0.851742828028655, -0.10866873569413782, -1.4095160629400925, -5.984555463753295, -1.450317405381604, -0.24075342184928716, 2.634388037093038, 7.211430488414168, 0.4386899513869536, -0.20945825026795567, 0.1027760797934139, 0.967425362802765, -3.022672027493032], [2.032591488180338, -2.6106806348217395, -0.3377560996684323, 3.650578409443188, -0.6842540700359316, 5.825634677169182, -2.623371291558332, -18.519141065897674, 1.548726248698252, -1.3939082934254963, 1.2534085698154223, 2.3958646027806556, -1.6468160904644917], [1.4681609126715374, -0.2299170050022682, -0.8455295145711276, -2.94690683537315, -0.9438521731515118, 5.2216089380722535, 1.584195983317907, -0.6319740936822512, 0.33931308708212365, 0.5366149889694338, -0.3004335636805156, 1.5145907817301336, -2.0895232851465684], [1.7519966593746004, 0.6914518990398232, 3.4705635510561144, 7.432574792870752, 2.3633867365890535, 1.2966250012158307, -3.7273785298443993, -12.876831463259586, 0.69231401719628, 0.518161667344288, 1.9186316512257071, 1.0692425955131506, -10.704568422566037], [1.3394879611498525, -3.067439443675656, -2.896964585828923, -2.1096799316705575, -2.109647019089188, 5.128156000532932, 1.2671604809666674, 2.6945227518368933, 1.1223989233740637, -0.3602839070919157, -0.31832866214745176, 2.65487942339185, -2.3183807297918517], [0.11642008166020218, -2.1109215250873046, -3.8731906192428123, -3.0940895593133626, -2.668991451308892, 2.6352762647161967, 1.6818589606671974, 3.3085884300969997, -0.09676810480859485, -0.10270120185967531, -0.48123397192277856, 1.6687889443853723, -1.061174063223361], [1.9669040499561672, 2.037675820766574, 1.5974733093210354, 2.0286750574334103, 0.5445638956261258, -4.782814146978581, -0.24187589273584695, -1.7806336585926321, 0.2377360626280623, 0.8363664524424029, 1.4714941522001306, 1.2947810776453004, -13.192090208352498]], "W2": [[0.2801150910154345, -3.0565742575321524, 1.153090163366337], [-0.5693401025270117, -4.966203421572498, 4.563077345192216], [-1.6099915844698311, -5.261987211351168, 5.387332821343944], [-5.428549417059677, -6.13978442587269, 6.928427838231348], [-1.9841277787154075, -3.2181586434452036, 3.656136916417947], [-5.491897870324276, 7.1188219565351405, -8.237659274287555], [2.131168276566412, -0.23856329119510633, -3.2516108853315906], [2.1271673635983035, 4.561692016642914, -5.402023925956343], [0.27414810474338663, -1.391330003297083, -0.4968756816093444], [-0.2807763660355616, -3.4104360777450355, -0.47466608841322494], [1.243305677594366, -2.687275819805081, 0.5470303128479266], [-2.3341850570288463, -2.1886520298451635, 1.0962106097479798], [-12.325771799011756, 10.359382948109445, 1.5091340924061858]], "b1": [[-4.256061909604641, 4.698432524334706, -2.2293327772500686, -14.67232085695047, -1.2471219542081065, -15.62448145361068, 8.772472015169122, 32.532496048829046, -1.7038351040114021, 2.328383929473716, -1.9806074798023323, -4.094775124512675, 20.48495451158375]], "b2": [[4.560981277542284, 2.898647981438488, -1.502816191447048]]}