{"input_num": 4, "hidden_num": 10, "output_num": 3, "learning_rate": 0.05, "W1": [[0.8759660880619894, -0.9236742516005956, 0.6439987403868837, -0.5765649849764479, 0.7531036280157148, 0.3698737164258159, 0.7038986995290546, 0.6272015449851545, 0.5258145965748353, -9.461919845092421], [0.3994104124712475, -2.020796720026802, 0.12390451058397282, 1.0491131700111387, 0.9076594354135691, 1.047813620080058, 0.5560201001906048, 0.4523386502691692, 0.7169265773709997, -5.691936062905205], [0.47622138329424024, 3.4438932036507683, 0.5873306353453844, -0.022904770213365844, 0.5177292709223484, 0.6931463827113875, 0.4404498064016073, 0.2492786003904084, 0.6016847353488006, 8.945121590688899], [0.019358679842794924, 1.849728308843788, 0.13106549433640077, 0.9703199109551692, 0.5286765894659301, 0.5267401662137875, 0.14084317821194406, 0.9391802307734152, 0.3625376968471566, 11.427356926782085]], "W2": [[0.7331505219519311, -0.17157368414340943, -1.170000809329637], [-7.128885849027881, 7.410618261095173, 0.852795588516969], [-0.1844818204804563, -0.48444195108105303, -0.902808237313004], [0.5348213204157338, -1.5100023470938635, 0.18602358046092926], [0.24531406048613297, -0.12441441336741124, -0.6571559653081068], [0.7695948533521723, -0.8441710347378422, -1.1949910812764026], [0.12084384821794959, -0.45188891100935513, -1.3200599829704467], [0.36746008793880247, -0.9892956777826669, -1.3269499618771357], [0.2396963703313414, -0.2025748708385053, -1.4543895981843915], [-3.7669100468818772, -6.239039618580893, 7.102129237604222]], "b1": [[0.6475435427403572, 0.6051848884098209, 0.8825852376608854, 1.7256546777379769, 0.8239268156770406, 0.29038705728091463, 0.11060572175031583, 0.7735497125535578, 0.483759654181525, 12.947126778478804]], "b2": [[0.839895290263639, 1.0721071347207887, 2.4817689968554846]]}