{"input_num": 4, "hidden_num": 10, "output_num": 3, "learning_rate": 0.05, "W1": [[-8.856897995988032, 0.6140133611088875, 0.7230194425739331, 0.4473922667625134, 0.9149559127278388, -0.45922912975951263, 0.8119183103718878, 0.8641883553856933, 0.9058276338490404, -0.69663279545861], [-5.22700597399288, 0.44809045569988715, 0.49002623092157066, 0.34721476337123464, 0.3344513328258815, -1.8106566049402828, 0.5778059590598058, 0.9677061967657203, 0.38618428261844967, -1.998895333405426], [8.321207531573672, 0.6686375369659516, 0.38387975087480947, 0.8580088854064893, 0.2853560389537702, 1.1470162832784485, 0.09499009155609829, 0.8047893581698152, 0.5357150854334061, 3.077368615309912], [10.796742121266528, 0.46783249704211993, 0.6290898840268927, 0.8445521150137367, 0.5200751467975551, 1.6450639582596114, 0.5071115407015989, 0.744068723546087, 0.6122777811556638, 1.689303753148328]], "W2": [[-1.9337842422726201, -6.948155806237722, 5.874050546845679], [0.10068869912202269, -0.5984245455605915, -1.0819930940585372], [0.5571027688714895, -0.9584831676836538, -1.7701937050621823], [0.5674268393027853, -0.09035732168404853, -1.607552172652269], [0.8679726856314812, -0.8647847275036099, -1.4540773443047006], [-4.213458358643646, 2.072605585148499, 4.711677738202572], [0.11726926174510155, -1.0462189020571497, -1.6866694625314225], [-0.0723331560808988, -0.8961191478201845, -1.1376876124970154], [0.6589255352560148, -0.708310783773787, -0.9275354570539764], [-4.737484410042321, 5.957042347405745, 0.09669432804644172]], "b1": [[11.815604987410302, 0.5270818420371867, 0.7045616639505786, 0.5440580393124385, 0.5444313591422634, 1.549182117686482, 0.2437529780912235, 0.1399738999920627, 0.039882549302100175, 0.6249876678286401]], "b2": [[0.9651136465699015, 1.6221014414408574, 1.8158922957629113]]}